/*
 * Copyright (c) 2026 EdgeImpulse Inc.
 *
 * Generated by Edge Impulse and licensed under the applicable Edge Impulse
 * Terms of Service. Community and Professional Terms of Service
 * (https://edgeimpulse.com/legal/terms-of-service) or Enterprise Terms of
 * Service (https://edgeimpulse.com/legal/enterprise-terms-of-service),
 * according to your product plan subscription (the “License”).
 *
 * This software, documentation and other associated files (collectively referred
 * to as the “Software”) is a single SDK variation generated by the Edge Impulse
 * platform and requires an active paid Edge Impulse subscription to use this
 * Software for any purpose.
 *
 * You may NOT use this Software unless you have an active Edge Impulse subscription
 * that meets the eligibility requirements for the applicable License, subject to
 * your full and continued compliance with the terms and conditions of the License,
 * including without limitation any usage restrictions under the applicable License.
 *
 * If you do not have an active Edge Impulse product plan subscription, or if use
 * of this Software exceeds the usage limitations of your Edge Impulse product plan
 * subscription, you are not permitted to use this Software and must immediately
 * delete and erase all copies of this Software within your control or possession.
 * Edge Impulse reserves all rights and remedies available to enforce its rights.
 *
 * Unless required by applicable law or agreed to in writing, the Software is
 * distributed on an "AS IS" BASIS, WITHOUT WARRANTIES OR CONDITIONS OF ANY KIND,
 * either express or implied. See the License for the specific language governing
 * permissions, disclaimers and limitations under the License.
 */
// Generated on: 06.04.2026 12:00:38

#include <stdio.h>
#include <stdlib.h>
#include "edge-impulse-sdk/tensorflow/lite/c/builtin_op_data.h"
#include "edge-impulse-sdk/tensorflow/lite/c/common.h"
#include "edge-impulse-sdk/tensorflow/lite/micro/micro_mutable_op_resolver.h"
#include "edge-impulse-sdk/porting/ei_classifier_porting.h"

#if EI_CLASSIFIER_PRINT_STATE
#if defined(__cplusplus) && EI_C_LINKAGE == 1
extern "C" {
    extern void ei_printf(const char *format, ...);
}
#else
extern void ei_printf(const char *format, ...);
#endif
#endif

#define STRINGIZE(x) #x
#define STRINGIZE_VALUE_OF(x) STRINGIZE(x)

#if defined (__GNUC__)  /* GNU compiler */
#define ALIGN(X) __attribute__((aligned(X)))
#define DEFINE_SECTION(x) __attribute__((section(x)))
#elif defined (_MSC_VER)
#define ALIGN(X) __declspec(align(X))
#elif defined (__TASKING__) /* TASKING Compiler */
#define ALIGN(X) __align(X)
#define DEFINE_SECTION(x) __attribute__((section(x)))
#elif defined (__ARMCC_VERSION) /* Arm Compiler */
#define ALIGN(X) __ALIGNED(x)
#define DEFINE_SECTION(x) __attribute__((section(x)))
#elif defined (__ICCARM__) /* IAR Compiler */
#define ALIGN(x) __attribute__((aligned(x)))
#define DEFINE_SECTION(x) __attribute__((section(x)))
#elif defined (__clang__) /* LLVM/Clang Compiler */
#define ALIGN(X) __ALIGNED(x)
#define DEFINE_SECTION(x) __attribute__((section(x)))
#endif

#if defined(EI_MODEL_SECTION) && (defined(__GNUC__) || defined(__clang__))
#define MODEL_SECTION(X) __attribute__((section(STRINGIZE_VALUE_OF(X))))
#else
#define MODEL_SECTION(X)
#endif

#ifndef EI_MAX_SCRATCH_BUFFER_COUNT
#ifndef CONFIG_IDF_TARGET_ESP32S3
#define EI_MAX_SCRATCH_BUFFER_COUNT 4
#else
#define EI_MAX_SCRATCH_BUFFER_COUNT 4
#endif // CONFIG_IDF_TARGET_ESP32S3
#endif // EI_MAX_SCRATCH_BUFFER_COUNT

#ifndef EI_MAX_OVERFLOW_BUFFER_COUNT
#define EI_MAX_OVERFLOW_BUFFER_COUNT 10
#endif // EI_MAX_OVERFLOW_BUFFER_COUNT

using namespace tflite;
using namespace tflite::ops;
using namespace tflite::ops::micro;

namespace {

#if defined(EI_CLASSIFIER_ALLOCATION_STATIC_HIMAX) || defined(EI_CLASSIFIER_ALLOCATION_STATIC_HIMAX_GNU)
constexpr int kTensorArenaSize = 1536;
#else
constexpr int kTensorArenaSize = 512;
#endif

#if defined(EI_CLASSIFIER_ALLOCATION_STATIC)
#if defined (EI_TENSOR_ARENA_LOCATION)
uint8_t tensor_arena[kTensorArenaSize] ALIGN(16) DEFINE_SECTION(STRINGIZE_VALUE_OF(EI_TENSOR_ARENA_LOCATION));
#else
uint8_t tensor_arena[kTensorArenaSize] ALIGN(16);
#endif
#elif defined(EI_CLASSIFIER_ALLOCATION_STATIC_HIMAX)
#pragma Bss(".tensor_arena")
uint8_t tensor_arena[kTensorArenaSize] ALIGN(16);
#pragma Bss()
#elif defined(EI_CLASSIFIER_ALLOCATION_STATIC_HIMAX_GNU)
uint8_t tensor_arena[kTensorArenaSize] ALIGN(16) __attribute__((section(".tensor_arena")));
#else
#define EI_CLASSIFIER_ALLOCATION_HEAP 1
uint8_t* tensor_arena = NULL;
#endif

static uint8_t* tensor_boundary;
static uint8_t* current_location;

template <int SZ, class T> struct TfArray {
  int sz; T elem[SZ];
};

enum used_operators_e {
  OP_FULLY_CONNECTED, OP_SOFTMAX,  OP_LAST
};

struct TensorInfo_t { // subset of TfLiteTensor used for initialization from constant memory
  TfLiteAllocationType allocation_type;
  void* data;
  TfLiteIntArray* dims;
  size_t bytes;
};

typedef struct {
  TfLiteTensor tensor;
  int16_t index;
} TfLiteTensorWithIndex;

typedef struct {
  TfLiteEvalTensor tensor;
  int16_t index;
} TfLiteEvalTensorWithIndex;

TfLiteContext ctx{};
static const int MAX_TFL_TENSOR_COUNT = 4;
static TfLiteTensorWithIndex tflTensors[MAX_TFL_TENSOR_COUNT];
static const int MAX_TFL_EVAL_COUNT = 4;
static TfLiteEvalTensorWithIndex tflEvalTensors[MAX_TFL_EVAL_COUNT];
TfLiteRegistration registrations[OP_LAST];

namespace g0 {
const TfArray<2, int> tensor_dimension0 = { 2, { 1,15 } };
const MODEL_SECTION(EI_MODEL_SECTION) ALIGN(16) float tensor_data1[16] = { 0.0086674410849809647, -0.017197098582983017, -0.076615132391452789, 0, 0, -0.0077121937647461891, 0, -0.040428847074508667, 0.0058571347035467625, -0.087075449526309967, -0.071191996335983276, 0.062807455658912659, 0, 0, -0.049087032675743103, 0, };
const TfArray<1, int> tensor_dimension1 = { 1, { 16 } };
const MODEL_SECTION(EI_MODEL_SECTION) ALIGN(16) float tensor_data2[32] = { -0.0044468939304351807, 0, -0.027193630114197731, -0.016924155876040459, 0, 0, 0, -0.062475666403770447, 0, 0, 0, -0.015506546944379807, 0, 0, -0.031940937042236328, -0.01970185898244381, 0.021998729556798935, 0, -0.02211657352745533, -0.085006006062030792, 0, -0.032623153179883957, -0.082967713475227356, 0, -0.022322995588183403, -0.044266674667596817, 0, 0, 0.049112878739833832, -0.066498227417469025, -0.031224993988871574, -0.041563320904970169, };
const TfArray<1, int> tensor_dimension2 = { 1, { 32 } };
const MODEL_SECTION(EI_MODEL_SECTION) ALIGN(8) float tensor_data3[3] = { -0.036771710962057114, 0.078631132841110229, -0.015877682715654373, };
const TfArray<1, int> tensor_dimension3 = { 1, { 3 } };
const MODEL_SECTION(EI_MODEL_SECTION) ALIGN(16) float tensor_data4[32*15] = { 
  -0.010788608342409134, -0.33705651760101318, -0.20204202830791473, 0.31091710925102234, -0.045872174203395844, 0.10746706277132034, 0.17134386301040649, 0.085249222815036774, 0.10587230324745178, 0.052809517830610275, 0.078212045133113861, -0.11825221031904221, -0.06198560819029808, -0.27386766672134399, 0.31161966919898987, 
  -0.34591364860534668, -0.35577747225761414, -0.015331804752349854, 0.25782012939453125, -0.3230145275592804, 0.15442067384719849, 0.083543181419372559, -0.12748903036117554, -0.12531645596027374, -0.22631588578224182, 0.27382582426071167, -0.057732164859771729, 0.029875725507736206, 0.18959170579910278, 0.069172769784927368, 
  0.2048918753862381, -0.34254845976829529, -0.26653251051902771, 0.091605111956596375, 0.17494186758995056, 0.31391540169715881, 0.074284389615058899, -0.099782451987266541, -0.38277909159660339, 0.13670296967029572, 0.091606691479682922, 0.0030633155256509781, 0.20079536736011505, -0.25651073455810547, -0.35675942897796631, 
  -0.35368868708610535, 0.22996616363525391, 0.26994338631629944, -0.11355026811361313, 0.29534748196601868, 0.11338482052087784, 0.048636149615049362, 0.30903616547584534, 0.19195158779621124, -0.18781404197216034, -0.33041608333587646, 0.087415046989917755, 0.29720187187194824, -0.18727314472198486, 0.2822546660900116, 
  0.28733962774276733, -0.2278154045343399, -0.060430824756622314, 0.17106091976165771, -0.21160243451595306, -0.16688615083694458, -0.31219297647476196, 0.21621149778366089, -0.22876335680484772, -0.12310034036636353, 0.20396614074707031, -0.17664603888988495, 0.072222083806991577, -0.091440379619598389, -0.22210165858268738, 
  -0.10551869869232178, 0.17487615346908569, -0.023011386394500732, 0.058562874794006348, -0.29899165034294128, -0.13718673586845398, -0.045911103487014771, -0.24335771799087524, 0.064699649810791016, -0.068139046430587769, -0.3191656768321991, 0.092311590909957886, -0.22614628076553345, -0.034801691770553589, -0.018398851156234741, 
  0.17196464538574219, -0.090853124856948853, -0.34026873111724854, -0.18542195856571198, -0.15929985046386719, -0.1243574321269989, -0.12483072280883789, 0.10662516951560974, 0.17054289579391479, -0.34844750165939331, -0.14259271323680878, -0.2098395973443985, 0.076768696308135986, -0.32886305451393127, -0.17985320091247559, 
  0.18513835966587067, 0.21134938299655914, -0.12313079833984375, 0.19239330291748047, -0.10848578065633774, -0.18866738677024841, 0.18534591794013977, 0.30978375673294067, 0.20451369881629944, 0.10175524652004242, -0.19325627386569977, -0.35259494185447693, -0.0067702708765864372, 0.1311308741569519, -0.35415413975715637, 
  0.19362127780914307, -0.07801172137260437, -0.11373460292816162, -0.2651154100894928, -0.11926494538784027, -0.028836041688919067, -0.011041432619094849, -0.32833760976791382, -0.15701882541179657, -0.12307198345661163, 0.14554703235626221, -0.1704556792974472, -0.09647485613822937, 0.32398307323455811, 0.13396400213241577, 
  -0.29613816738128662, 0.28746604919433594, -0.01937633752822876, -0.27999404072761536, -0.13829338550567627, -0.194069504737854, -0.22579982876777649, 0.093649595975875854, 0.16434711217880249, -0.25381562113761902, -0.038499683141708374, 0.35615873336791992, -0.13186894357204437, -0.29191884398460388, -0.2620621919631958, 
  0.34055930376052856, -0.30210220813751221, 0.068007349967956543, -0.34585034847259521, -0.23103627562522888, -0.021671593189239502, -0.26613074541091919, -0.35230639576911926, 0.20577692985534668, -0.26494741439819336, -0.0061453878879547119, 0.0046145021915435791, -0.28101056814193726, 0.067474246025085449, -0.19335088133811951, 
  -0.071181498467922211, -0.18760475516319275, -0.29774805903434753, 0.14199766516685486, 0.093210220336914062, 0.23710052669048309, 0.28564533591270447, 0.17162275314331055, 0.17827737331390381, -0.018146596848964691, -0.16987438499927521, 0.11651086807250977, 0.24454811215400696, -0.18601590394973755, 0.26637718081474304, 
  -0.16282500326633453, 0.056681722402572632, -0.025660842657089233, 0.21901309490203857, -0.22601525485515594, -0.28666961193084717, -0.10370644927024841, -0.11193650960922241, -0.12894919514656067, 0.30994093418121338, 0.045178323984146118, -0.030719667673110962, -0.11484269797801971, 0.23970973491668701, 0.062110364437103271, 
  0.08378484845161438, 0.062560379505157471, 0.25019574165344238, 0.21041792631149292, 0.10555490851402283, -0.048838168382644653, -0.32952067255973816, 0.34509396553039551, -0.092055678367614746, -0.18895938992500305, -0.35617008805274963, -0.10888013243675232, -0.19271139800548553, 0.22397053241729736, -0.066796839237213135, 
  0.30673027038574219, -0.15901827812194824, -0.42068666219711304, -0.21594464778900146, 0.27125662565231323, 0.15143010020256042, -0.046570021659135818, -0.21010403335094452, -0.34909430146217346, 0.22029642760753632, -0.32927098870277405, 0.31372225284576416, 0.06210598349571228, 0.090708047151565552, -0.3018966019153595, 
  -0.015137752518057823, 0.10500179976224899, -0.14701689779758453, -0.27875640988349915, 0.3337155282497406, 0.11378731578588486, -0.071611255407333374, 0.30755388736724854, 0.3595714271068573, -0.086043722927570343, 0.043400462716817856, -0.23387007415294647, 0.12251202762126923, -0.038412436842918396, -0.13904151320457458, 
  -0.0081704501062631607, 0.18734760582447052, 0.098103180527687073, -0.32766038179397583, -0.096372321248054504, 0.11601308733224869, -0.00052025559125468135, -0.31259030103683472, 0.16749890148639679, 0.17854326963424683, -0.29270043969154358, 0.324820876121521, 0.3009205162525177, 0.17704163491725922, -0.068674921989440918, 
  -0.066878020763397217, -0.30096250772476196, -0.10347858071327209, 0.34329020977020264, 0.3521386981010437, 0.12217378616333008, -0.30271589756011963, 0.047049164772033691, 0.094954460859298706, -0.0059646070003509521, -0.24765115976333618, 0.24986207485198975, -0.058985739946365356, -0.28054365515708923, -0.17652823030948639, 
  -0.34121501445770264, 0.14201004803180695, 0.18925866484642029, -0.17376706004142761, 0.2220386266708374, -0.052757579833269119, -0.28704234957695007, -0.21992290019989014, 0.379437655210495, -0.085218183696269989, -0.020232653245329857, 0.10738144069910049, 0.38701325654983521, 0.38073164224624634, 0.19965669512748718, 
  -0.11992746591567993, 0.20293474197387695, -0.11903373897075653, -0.0055195181630551815, 0.037014387547969818, 0.14676102995872498, 0.19176121056079865, 0.080595798790454865, 0.063619822263717651, -0.44676849246025085, -0.1182279959321022, 0.20727889239788055, -0.32119417190551758, 0.19475716352462769, -0.11420613527297974, 
  -0.049341768026351929, 0.0036988556385040283, -0.28090858459472656, -0.084683388471603394, -0.20925922691822052, -0.28159773349761963, -0.082253128290176392, -0.22195623815059662, 0.1727297306060791, -0.15129843354225159, 0.25469005107879639, 0.29426044225692749, -0.039786487817764282, -0.20461864769458771, 0.14458489418029785, 
  -0.029581950977444649, -0.18168367445468903, -0.11436116695404053, -0.085791930556297302, -0.0056857885792851448, 0.31825035810470581, 0.078317761421203613, -0.34405055642127991, 0.27477967739105225, 0.27405214309692383, 0.16724343597888947, -0.27543893456459045, -0.26991331577301025, -0.126288041472435, 0.32745498418807983, 
  -0.086240887641906738, -0.23179692029953003, -0.30530425906181335, -0.037510883063077927, 0.0099488105624914169, -0.070008747279644012, 0.30158832669258118, -0.083296656608581543, -0.31906679272651672, -0.25263816118240356, 0.16758203506469727, 0.15959838032722473, -0.25352427363395691, 0.22660136222839355, 0.22964681684970856, 
  0.18467521667480469, -0.26375967264175415, 0.30581450462341309, -0.11666150391101837, -0.13931766152381897, -0.29830625653266907, -0.021759331226348877, -0.12633007764816284, -0.0040802359580993652, 0.16050827503204346, -0.17104500532150269, 0.12404265999794006, 0.29044967889785767, -0.32554522156715393, 0.01282888650894165, 
  -0.0052219927310943604, -0.20463959872722626, -0.28896024823188782, 0.09726298600435257, -0.40674054622650146, 0.13047228753566742, -0.37304890155792236, 0.22009468078613281, -0.079929344356060028, 0.19853198528289795, 0.15476492047309875, 0.09061720222234726, 0.3378785252571106, 0.28924077749252319, 0.15864452719688416, 
  0.23566152155399323, 0.26430037617683411, -0.30304995179176331, 0.01095711812376976, 0.28902652859687805, 0.048026472330093384, -0.17661534249782562, -0.45257577300071716, 0.11642633378505707, -0.29306623339653015, 0.071933798491954803, 0.27505472302436829, -0.17044830322265625, 0.18987852334976196, -0.15673042833805084, 
  -0.099664568901062012, 0.18863821029663086, -0.27973303198814392, 0.21626371145248413, 0.11992675065994263, 0.029497772455215454, -0.32802832126617432, 0.094228595495223999, -0.20558814704418182, -0.13757194578647614, -0.17973445355892181, -0.19417683780193329, -0.30134889483451843, 0.19510126113891602, 0.25554358959197998, 
  -0.34801363945007324, 0.018668621778488159, -0.27139139175415039, -0.034493386745452881, 0.057729601860046387, 0.29533010721206665, -0.28698813915252686, 0.2256089448928833, 0.1511722207069397, 0.27454209327697754, -0.18982334434986115, -0.18896287679672241, -0.079788088798522949, -0.22768872976303101, 0.1555016040802002, 
  0.3373757004737854, 0.2806435227394104, 0.24822770059108734, 0.30267655849456787, -0.25240978598594666, -0.058204945176839828, 0.11571647971868515, 0.12078725546598434, -0.23640422523021698, 0.13293389976024628, -0.16591387987136841, -0.17999634146690369, 0.19874100387096405, -0.064258560538291931, -0.14773523807525635, 
  0.14792317152023315, 0.025511004030704498, 0.22782646119594574, -0.033013861626386642, 0.27168184518814087, -0.36773443222045898, 0.12783157825469971, 0.22404196858406067, -0.005741429515182972, -0.14274665713310242, 0.19621285796165466, -0.22939853370189667, -0.35963273048400879, -0.1011229008436203, 0.32468092441558838, 
  0.059265017509460449, -0.25487527251243591, 0.034151535481214523, -0.094341367483139038, -0.05086594820022583, 0.094118349254131317, 0.052170280367136002, -0.29430270195007324, 0.16059477627277374, -0.20239725708961487, -0.026712775230407715, 0.1453997790813446, 0.30732652544975281, -0.13665284216403961, 0.26207390427589417, 
  0.12695838510990143, 0.22798328101634979, -0.35173144936561584, 0.10142113268375397, -0.043899163603782654, -0.075036190450191498, 0.30022245645523071, -0.21846289932727814, -0.22668156027793884, -0.14208059012889862, -0.11750280857086182, 0.24090738594532013, -0.34364482760429382, -0.18355867266654968, -0.27520710229873657, 
};
const TfArray<2, int> tensor_dimension4 = { 2, { 32,15 } };
const MODEL_SECTION(EI_MODEL_SECTION) ALIGN(16) float tensor_data5[16*32] = { 
  0.15762791037559509, 0.14298906922340393, 0.36081492900848389, 0.19007454812526703, -0.10895296931266785, -0.017430752515792847, 0.0076139271259307861, 0.13349428772926331, -0.014745146036148071, 0.074843525886535645, 0.00015190243721008301, -0.059738662093877792, -0.24441108107566833, 0.067572683095932007, 0.2761058509349823, -0.25392439961433411, 0.042663846164941788, 0.17315933108329773, 0.057812076061964035, 0.0690932497382164, -0.29307737946510315, -0.10846354812383652, 0.20502537488937378, 0.056190252304077148, 7.4871029937639832e-05, 0.12265314906835556, 0.32893499732017517, 0.26009324193000793, 0.15251424908638, -0.076310552656650543, 0.050959993153810501, -0.29245764017105103, 
  -0.17809633910655975, 0.27504745125770569, -0.0022362286690622568, 0.23339179158210754, -0.020375043153762817, -0.2810860276222229, -0.090706080198287964, 0.14977104961872101, -0.22599393129348755, -0.072637319564819336, -0.15171794593334198, 0.0012308111181482673, 0.25427725911140442, 0.33828601241111755, 0.1866975724697113, 0.32621163129806519, 0.27324956655502319, 0.053674936294555664, 0.09745151549577713, -0.34162086248397827, -0.17819763720035553, -0.23941047489643097, -0.0063816658221185207, -0.0028115212917327881, 0.05305861309170723, 0.12460831552743912, 0.1959979236125946, -0.093813240528106689, -0.35405409336090088, -0.30175197124481201, 0.30980449914932251, -0.17033135890960693, 
  -0.1193072497844696, 0.12305977940559387, -0.047153979539871216, 0.039785571396350861, 0.03415226936340332, -0.12393338978290558, 0.037209093570709229, 0.05019085481762886, 0.34418943524360657, 0.027569442987442017, 0.25490859150886536, 0.18202073872089386, 0.17443457245826721, -0.2910919189453125, 0.078551344573497772, 0.24633936583995819, -0.25548815727233887, 0.15533414483070374, 0.094924934208393097, -0.20516893267631531, -0.10564747452735901, -0.019798891618847847, 0.23044152557849884, -0.0024439990520477295, 0.28225699067115784, 0.2426992654800415, -0.16557894647121429, 0.025648057460784912, -0.28140753507614136, -0.012682227417826653, 0.25103208422660828, 0.27173274755477905, 
  0.17787763476371765, -0.21652866899967194, 0.15390112996101379, -0.12369914352893829, 0.26449987292289734, -0.084800302982330322, -0.28182956576347351, 0.1811387836933136, 0.066802084445953369, -0.30260011553764343, -0.080268919467926025, 0.26836195588111877, 0.012460559606552124, -0.18071666359901428, -0.19259321689605713, 0.099573612213134766, -0.23343874514102936, 0.012293219566345215, -0.13776817917823792, -0.12515540421009064, 0.1598382294178009, -0.085324347019195557, 0.20931127667427063, 0.15786269307136536, 0.27143767476081848, -0.21895827353000641, 0.15828374028205872, -0.026273488998413086, 0.0044088065624237061, -0.24111461639404297, -0.26169770956039429, -0.055060297250747681, 
  -0.13703921437263489, -0.20466560125350952, -0.23749765753746033, -0.17874772846698761, -0.32955706119537354, -0.27889344096183777, 0.070558726787567139, 0.12329748272895813, -0.26102909445762634, -0.1038411557674408, -0.14708347618579865, -0.21336774528026581, -0.10517702996730804, 0.20668527483940125, 0.092982113361358643, -0.072585314512252808, 0.17866250872612, 0.23140719532966614, 0.23231527209281921, -0.15924184024333954, -0.28772464394569397, 0.32099190354347229, -0.11117857694625854, 0.070387333631515503, -0.271065354347229, -0.1660836935043335, -0.074332892894744873, 0.11182132363319397, 0.17877629399299622, 0.21758976578712463, 0.31751611828804016, -0.19336645305156708, 
  -0.23747700452804565, 0.20546838641166687, 0.23532737791538239, 0.16298438608646393, -0.06014716625213623, -0.35189893841743469, -0.15869274735450745, 0.29637789726257324, -0.28430163860321045, 0.16953453421592712, -0.11142623424530029, -0.14364369213581085, 0.25419911742210388, 0.26458719372749329, -0.269907146692276, -0.041512124240398407, -0.26653450727462769, 0.34869489073753357, 0.14060103893280029, 0.11131022870540619, 0.017067372798919678, 0.09456229954957962, -0.24185179173946381, 0.21946337819099426, -0.11592525988817215, 0.23652757704257965, -0.014044344425201416, -0.069775283336639404, 0.12639437615871429, -0.080175556242465973, -0.10032936930656433, -0.24867506325244904, 
  0.27826234698295593, -0.009033501148223877, 0.12375485897064209, 0.21112653613090515, -0.31717097759246826, -0.08003804087638855, 0.097543150186538696, 0.064655870199203491, 0.14943525195121765, -0.24971434473991394, 0.18111935257911682, -0.30296376347541809, -0.098827600479125977, -0.024598747491836548, 0.07678532600402832, 0.20197179913520813, -0.11840373277664185, -0.32997399568557739, -0.21878336369991302, 0.24057772755622864, -0.058706521987915039, 0.066485881805419922, -0.26184570789337158, -0.25946390628814697, -0.21144415438175201, -0.090261787176132202, 0.31915381550788879, -0.13011904060840607, -0.30325761437416077, 0.12408545613288879, -0.22734861075878143, -0.13090600073337555, 
  -0.10674867779016495, 0.28454962372779846, -0.062672853469848633, -0.3035123348236084, -0.29238110780715942, 0.34490516781806946, 0.30198833346366882, 0.15333330631256104, 0.18958428502082825, 0.27121254801750183, 0.25988325476646423, 0.29527714848518372, 0.23342904448509216, 0.26008835434913635, 0.13381044566631317, 0.093837395310401917, 0.080852918326854706, 0.0093125998973846436, -0.22455549240112305, -0.037573143839836121, 0.31038263440132141, 0.029640721157193184, 0.31211927533149719, 0.10064151883125305, 0.0062233651988208294, 0.3247348964214325, 0.0013775229454040527, -0.33138424158096313, 0.2726379930973053, -0.17342190444469452, 0.11989147216081619, 0.1277318149805069, 
  0.14260922372341156, -0.29199826717376709, 0.17203034460544586, 0.30558589100837708, 0.062312334775924683, -0.089700639247894287, 0.27317360043525696, 0.27290952205657959, -0.12417691946029663, -0.21081802248954773, -0.26337826251983643, 0.21289269626140594, 0.27468898892402649, -0.09492143988609314, -0.43422386050224304, 0.25631323456764221, -0.034121118485927582, -0.17170102894306183, 0.29381752014160156, 0.21824812889099121, 0.051860004663467407, 0.10045348852872849, -0.092778667807579041, -0.061540901660919189, 0.096139661967754364, -0.32128560543060303, 0.34407362341880798, -0.0067322850227355957, -0.0070028654299676418, -0.30775317549705505, 0.1466560959815979, -0.25866249203681946, 
  0.11305031925439835, -0.21028393507003784, 0.30794751644134521, 0.22009874880313873, -0.13851544260978699, 0.23392978310585022, 0.23472860455513, 0.049601815640926361, -0.081581711769104004, -0.13568073511123657, -0.055712729692459106, -0.23299816250801086, 0.010070055723190308, 0.17892161011695862, 0.007409755140542984, 0.064512595534324646, -0.033776264637708664, -0.20837932825088501, -0.24834594130516052, 0.28908395767211914, -0.095513284206390381, 0.15177896618843079, -0.15107043087482452, 0.30034139752388, -0.083476483821868896, 0.3192615807056427, -0.23509427905082703, -0.26791730523109436, -0.22786429524421692, 0.14968793094158173, -0.073460809886455536, 0.34961217641830444, 
  -0.29491442441940308, -0.17837423086166382, -0.11669458448886871, 0.11718472093343735, 0.08124116063117981, -0.15402944386005402, 0.18889734148979187, -0.16334003210067749, -0.31790843605995178, -0.28754922747612, -0.079308301210403442, -0.081175021827220917, -0.15341435372829437, -0.29635664820671082, -0.20661634206771851, -0.014294563792645931, -0.16226492822170258, -0.023035109043121338, -0.19526062905788422, 0.17863719165325165, -0.23701059818267822, 0.086317770183086395, -0.13342605531215668, 0.32430985569953918, -0.014235253445804119, 0.093554645776748657, -0.049680441617965698, 0.2780660092830658, 0.096545547246932983, 0.067127861082553864, 0.15552301704883575, 0.23207902908325195, 
  -0.29920291900634766, 0.14095953106880188, -0.27769333124160767, 0.28915661573410034, 0.23610088229179382, 0.055240094661712646, -0.1779015064239502, -0.10639860481023788, -0.16366337239742279, -0.20478495955467224, 0.10385161638259888, 0.060542061924934387, 0.33703175187110901, -0.34508118033409119, -0.098541423678398132, 0.21836137771606445, -0.12600280344486237, -0.036424994468688965, -0.21636781096458435, 0.21190273761749268, -0.29453009366989136, -0.26439779996871948, -0.23946702480316162, -0.10352379083633423, 0.32997632026672363, 0.24921642243862152, 0.17305949330329895, -0.27521875500679016, 0.19119797646999359, -0.15569871664047241, 0.197864830493927, -0.3446192741394043, 
  -0.29237714409828186, 0.16572478413581848, -0.25631612539291382, 0.34344008564949036, -0.10075464844703674, -0.034556537866592407, 0.28708711266517639, -0.060881614685058594, 0.16426339745521545, -0.053412795066833496, -0.29466632008552551, -0.14345842599868774, -0.30346649885177612, 0.19706115126609802, -0.2934952974319458, -0.1165994256734848, 0.18746700882911682, 0.18406042456626892, 0.22060224413871765, 0.081190347671508789, 0.15246638655662537, -0.32896289229393005, -0.18430513143539429, 0.180829256772995, -0.32441523671150208, -0.22786962985992432, -0.096257328987121582, -0.10124886035919189, 0.092577248811721802, 0.18598988652229309, 0.050342738628387451, 0.10264477133750916, 
  0.040505468845367432, -0.048601895570755005, -0.092078626155853271, -0.15743575990200043, -0.33560085296630859, 0.22215166687965393, -0.18175803124904633, -0.15383321046829224, 0.21151885390281677, 0.15094217658042908, -0.1626339852809906, 0.0081021487712860107, -0.34473440051078796, -0.29121947288513184, -0.18398422002792358, -0.26695466041564941, -0.15620759129524231, 0.056090623140335083, 0.31505575776100159, -0.016461282968521118, 0.24375787377357483, -0.27740263938903809, -0.24150565266609192, 0.20789828896522522, -0.062235057353973389, 0.029019445180892944, 0.011035054922103882, -0.29805946350097656, 0.23853984475135803, -0.19240027666091919, 0.040378034114837646, -0.010475337505340576, 
  0.19384057819843292, 0.038817912340164185, 0.38638132810592651, -0.14407038688659668, -0.078790843486785889, 0.18545910716056824, 0.056847244501113892, -0.32890260219573975, -0.039915770292282104, 0.28901675343513489, 0.30410113930702209, 0.075335383415222168, -0.033897370100021362, -0.018066316843032837, 0.28901281952857971, -0.24472260475158691, 0.28252789378166199, -0.34059205651283264, -0.038152534514665604, 0.3343447744846344, 0.059327155351638794, -0.25924515724182129, -0.0017431353917345405, -0.28569501638412476, 0.31162473559379578, -0.15412706136703491, -0.074608445167541504, -0.1395220011472702, -0.31533762812614441, 0.21756438910961151, 0.050008382648229599, -0.11229169368743896, 
  0.21239331364631653, 0.20294210314750671, -0.034799486398696899, -0.17607663571834564, 0.032482057809829712, -0.14214041829109192, -0.15996153652667999, 0.20085349678993225, -0.01295897364616394, -0.056680083274841309, 0.18712761998176575, -0.093081891536712646, 0.034023284912109375, -0.21262232959270477, 0.031668037176132202, 0.12229153513908386, -0.20148047804832458, -0.27206069231033325, 0.21682646870613098, -0.22961947321891785, -0.33580628037452698, -0.048527300357818604, 0.072664618492126465, 0.14385959506034851, 0.1596539318561554, -0.15556932985782623, 0.13695323467254639, -0.20909817516803741, 0.043175637722015381, 0.32141801714897156, -0.055405318737030029, 0.15021893382072449, 
};
const TfArray<2, int> tensor_dimension5 = { 2, { 16,32 } };
const MODEL_SECTION(EI_MODEL_SECTION) ALIGN(16) float tensor_data6[3*16] = { 
  0.27802470326423645, 0.090107940137386322, 0.47590181231498718, -0.42830461263656616, -0.19611033797264099, 0.07549721747636795, 0.39211010932922363, -0.41269737482070923, -0.54440206289291382, 0.3724941611289978, 0.27101925015449524, -0.24502409994602203, 0.26170331239700317, -0.52655726671218872, 0.16982409358024597, 0.10819286108016968, 
  0.26199325919151306, 0.30195590853691101, 0.065312102437019348, -0.35339817404747009, -0.52011001110076904, 0.024276930838823318, 0.16072267293930054, -0.43080878257751465, 0.12089613080024719, -0.088088341057300568, -0.097246132791042328, 0.26257765293121338, 0.063492715358734131, 0.26597899198532104, -0.094723165035247803, 0.26049035787582397, 
  -0.34334301948547363, -0.077731586992740631, 0.42823991179466248, -0.0011605024337768555, -0.47280782461166382, -0.17854566872119904, -0.45350885391235352, -0.2533913254737854, 0.46779122948646545, 0.17307426035404205, 0.5386243462562561, -0.36177003383636475, -0.32919502258300781, 0.41621547937393188, 0.031917452812194824, 0.1973307728767395, 
};
const TfArray<2, int> tensor_dimension6 = { 2, { 3,16 } };
const TfArray<2, int> tensor_dimension7 = { 2, { 1,32 } };
const TfArray<2, int> tensor_dimension8 = { 2, { 1,16 } };
const TfArray<2, int> tensor_dimension9 = { 2, { 1,3 } };
const TfLiteFullyConnectedParams opdata0 = { kTfLiteActRelu, kTfLiteFullyConnectedWeightsFormatDefault, false, false };
const TfArray<3, int> inputs0 = { 3, { 0,4,2 } };
const TfArray<1, int> outputs0 = { 1, { 7 } };
const TfLiteFullyConnectedParams opdata1 = { kTfLiteActRelu, kTfLiteFullyConnectedWeightsFormatDefault, false, false };
const TfArray<3, int> inputs1 = { 3, { 7,5,1 } };
const TfArray<1, int> outputs1 = { 1, { 8 } };
const TfLiteFullyConnectedParams opdata2 = { kTfLiteActNone, kTfLiteFullyConnectedWeightsFormatDefault, false, false };
const TfArray<3, int> inputs2 = { 3, { 8,6,3 } };
const TfArray<1, int> outputs2 = { 1, { 9 } };
const TfLiteSoftmaxParams opdata3 = { 1 };
const TfArray<1, int> inputs3 = { 1, { 9 } };
const TfArray<1, int> outputs3 = { 1, { 10 } };
};

TensorInfo_t tensorData[] = {
{ kTfLiteArenaRw, (int32_t*)(tensor_arena + 128), (TfLiteIntArray*)&g0::tensor_dimension0, 60, },
{ kTfLiteMmapRo, (int32_t*)g0::tensor_data1, (TfLiteIntArray*)&g0::tensor_dimension1, 64, },
{ kTfLiteMmapRo, (int32_t*)g0::tensor_data2, (TfLiteIntArray*)&g0::tensor_dimension2, 128, },
{ kTfLiteMmapRo, (int32_t*)g0::tensor_data3, (TfLiteIntArray*)&g0::tensor_dimension3, 12, },
{ kTfLiteMmapRo, (int32_t*)g0::tensor_data4, (TfLiteIntArray*)&g0::tensor_dimension4, 1920, },
{ kTfLiteMmapRo, (int32_t*)g0::tensor_data5, (TfLiteIntArray*)&g0::tensor_dimension5, 2048, },
{ kTfLiteMmapRo, (int32_t*)g0::tensor_data6, (TfLiteIntArray*)&g0::tensor_dimension6, 192, },
{ kTfLiteArenaRw, (int32_t*)(tensor_arena + 0), (TfLiteIntArray*)&g0::tensor_dimension7, 128, },
{ kTfLiteArenaRw, (int32_t*)(tensor_arena + 128), (TfLiteIntArray*)&g0::tensor_dimension8, 64, },
{ kTfLiteArenaRw, (int32_t*)(tensor_arena + 16), (TfLiteIntArray*)&g0::tensor_dimension9, 12, },
{ kTfLiteArenaRw, (int32_t*)(tensor_arena + 0), (TfLiteIntArray*)&g0::tensor_dimension9, 12, },
};

#ifndef TF_LITE_STATIC_MEMORY
TfLiteNode tflNodes[4] = {
{ (TfLiteIntArray*)&g0::inputs0, (TfLiteIntArray*)&g0::outputs0, (TfLiteIntArray*)&g0::inputs0, nullptr, nullptr, const_cast<void*>(static_cast<const void*>(&g0::opdata0)), nullptr, 0, },
{ (TfLiteIntArray*)&g0::inputs1, (TfLiteIntArray*)&g0::outputs1, (TfLiteIntArray*)&g0::inputs1, nullptr, nullptr, const_cast<void*>(static_cast<const void*>(&g0::opdata1)), nullptr, 0, },
{ (TfLiteIntArray*)&g0::inputs2, (TfLiteIntArray*)&g0::outputs2, (TfLiteIntArray*)&g0::inputs2, nullptr, nullptr, const_cast<void*>(static_cast<const void*>(&g0::opdata2)), nullptr, 0, },
{ (TfLiteIntArray*)&g0::inputs3, (TfLiteIntArray*)&g0::outputs3, (TfLiteIntArray*)&g0::inputs3, nullptr, nullptr, const_cast<void*>(static_cast<const void*>(&g0::opdata3)), nullptr, 0, },
};
#else
TfLiteNode tflNodes[4] = {
{ (TfLiteIntArray*)&g0::inputs0, (TfLiteIntArray*)&g0::outputs0, (TfLiteIntArray*)&g0::inputs0, nullptr, const_cast<void*>(static_cast<const void*>(&g0::opdata0)), nullptr, 0, },
{ (TfLiteIntArray*)&g0::inputs1, (TfLiteIntArray*)&g0::outputs1, (TfLiteIntArray*)&g0::inputs1, nullptr, const_cast<void*>(static_cast<const void*>(&g0::opdata1)), nullptr, 0, },
{ (TfLiteIntArray*)&g0::inputs2, (TfLiteIntArray*)&g0::outputs2, (TfLiteIntArray*)&g0::inputs2, nullptr, const_cast<void*>(static_cast<const void*>(&g0::opdata2)), nullptr, 0, },
{ (TfLiteIntArray*)&g0::inputs3, (TfLiteIntArray*)&g0::outputs3, (TfLiteIntArray*)&g0::inputs3, nullptr, const_cast<void*>(static_cast<const void*>(&g0::opdata3)), nullptr, 0, },
};
#endif

used_operators_e used_ops[] =
{OP_FULLY_CONNECTED, OP_FULLY_CONNECTED, OP_FULLY_CONNECTED, OP_SOFTMAX, };


// Indices into tflTensors and tflNodes for subgraphs
const size_t tflTensors_subgraph_index[] = {0, 11, };
const size_t tflNodes_subgraph_index[] = {0, 4, };

// Input/output tensors
static const int in_tensor_indices[] = {
  0, 
};

static const int out_tensor_indices[] = {
  10, 
};


size_t current_subgraph_index = 0;

static void init_tflite_tensor(size_t i, TfLiteTensor *tensor) {
  tensor->type = kTfLiteFloat32;
  tensor->is_variable = false;

#if defined(EI_CLASSIFIER_ALLOCATION_HEAP)
  tensor->allocation_type = tensorData[i].allocation_type;
#else
  tensor->allocation_type = (tensor_arena <= tensorData[i].data && tensorData[i].data < tensor_arena + kTensorArenaSize) ? kTfLiteArenaRw : kTfLiteMmapRo;
#endif
  tensor->bytes = tensorData[i].bytes;
  tensor->dims = tensorData[i].dims;

#if defined(EI_CLASSIFIER_ALLOCATION_HEAP)
  if(tensor->allocation_type == kTfLiteArenaRw){
    uint8_t* start = (uint8_t*) ((uintptr_t)tensorData[i].data + (uintptr_t) tensor_arena);

    tensor->data.data =  start;
  }
  else {
      tensor->data.data = tensorData[i].data;
  }
#else
  tensor->data.data = tensorData[i].data;
#endif // EI_CLASSIFIER_ALLOCATION_HEAP
  tensor->quantization.type = kTfLiteNoQuantization;

}

static void init_tflite_eval_tensor(int i, TfLiteEvalTensor *tensor) {

  tensor->type = kTfLiteFloat32;

  tensor->dims = tensorData[i].dims;

#if defined(EI_CLASSIFIER_ALLOCATION_HEAP)
  auto allocation_type = tensorData[i].allocation_type;
  if(allocation_type == kTfLiteArenaRw) {
    uint8_t* start = (uint8_t*) ((uintptr_t)tensorData[i].data + (uintptr_t) tensor_arena);

    tensor->data.data =  start;
  }
  else {
    tensor->data.data = tensorData[i].data;
  }
#else
  tensor->data.data = tensorData[i].data;
#endif // EI_CLASSIFIER_ALLOCATION_HEAP
}

static void* overflow_buffers[EI_MAX_OVERFLOW_BUFFER_COUNT];
static size_t overflow_buffers_ix = 0;
static void * AllocatePersistentBufferImpl(struct TfLiteContext* ctx,
                                       size_t bytes) {
  void *ptr;
  uint32_t align_bytes = (bytes % 16) ? 16 - (bytes % 16) : 0;

  if (current_location - (bytes + align_bytes) < tensor_boundary) {
    if (overflow_buffers_ix > EI_MAX_OVERFLOW_BUFFER_COUNT - 1) {
      ei_printf("ERR: Failed to allocate persistent buffer of size %d, does not fit in tensor arena and reached EI_MAX_OVERFLOW_BUFFER_COUNT\n",
        (int)bytes);
      return NULL;
    }

    // OK, this will look super weird, but.... we have CMSIS-NN buffers which
    // we cannot calculate beforehand easily.
    ptr = ei_calloc(bytes, 1);
    if (ptr == NULL) {
      ei_printf("ERR: Failed to allocate persistent buffer of size %d\n", (int)bytes);
      return NULL;
    }
    overflow_buffers[overflow_buffers_ix++] = ptr;
    return ptr;
  }

  current_location -= bytes;

  // align to the left aligned boundary of 16 bytes
  current_location -= 15; // for alignment
  current_location += 16 - ((uintptr_t)(current_location) & 15);

  ptr = current_location;
  memset(ptr, 0, bytes);

  return ptr;
}

typedef struct {
  size_t bytes;
  void *ptr;
} scratch_buffer_t;

static scratch_buffer_t scratch_buffers[EI_MAX_SCRATCH_BUFFER_COUNT];
static size_t scratch_buffers_ix = 0;

static TfLiteStatus RequestScratchBufferInArenaImpl(struct TfLiteContext* ctx, size_t bytes,
                                                int* buffer_idx) {
  if (scratch_buffers_ix > EI_MAX_SCRATCH_BUFFER_COUNT - 1) {
    ei_printf("ERR: Failed to allocate scratch buffer of size %d, reached EI_MAX_SCRATCH_BUFFER_COUNT\n",
      (int)bytes);
    return kTfLiteError;
  }

  scratch_buffer_t b;
  b.bytes = bytes;

  b.ptr = AllocatePersistentBufferImpl(ctx, b.bytes);
  if (!b.ptr) {
    ei_printf("ERR: Failed to allocate scratch buffer of size %d\n",
      (int)bytes);
    return kTfLiteError;
  }

  scratch_buffers[scratch_buffers_ix] = b;
  *buffer_idx = scratch_buffers_ix;

  scratch_buffers_ix++;

  return kTfLiteOk;
}

static void* GetScratchBufferImpl(struct TfLiteContext* ctx, int buffer_idx) {
  if (buffer_idx > (int)scratch_buffers_ix) {
    return NULL;
  }
  return scratch_buffers[buffer_idx].ptr;
}

static const uint16_t TENSOR_IX_UNUSED = 0x7FFF;

static void ResetTensors() {
  for (size_t ix = 0; ix < MAX_TFL_TENSOR_COUNT; ix++) {
    tflTensors[ix].index = TENSOR_IX_UNUSED;
  }
  for (size_t ix = 0; ix < MAX_TFL_EVAL_COUNT; ix++) {
    tflEvalTensors[ix].index = TENSOR_IX_UNUSED;
  }
}

static TfLiteTensor* GetTensorImpl(const struct TfLiteContext* context,
                               int tensor_idx) {

  tensor_idx = tflTensors_subgraph_index[current_subgraph_index] + tensor_idx;

  for (size_t ix = 0; ix < MAX_TFL_TENSOR_COUNT; ix++) {
    // already used? OK!
    if (tflTensors[ix].index == tensor_idx) {
      return &tflTensors[ix].tensor;
    }
    // passed all the ones we've used, so end of the list?
    if (tflTensors[ix].index == TENSOR_IX_UNUSED) {
      // init the tensor
      init_tflite_tensor(tensor_idx, &tflTensors[ix].tensor);
      tflTensors[ix].index = tensor_idx;
      return &tflTensors[ix].tensor;
    }
  }

  ei_printf("ERR: GetTensor called beyond MAX_TFL_TENSOR_COUNT (%d)\n", MAX_TFL_TENSOR_COUNT);
  return nullptr;
}

static TfLiteEvalTensor* GetEvalTensorImpl(const struct TfLiteContext* context,
                                       int tensor_idx) {

  tensor_idx = tflTensors_subgraph_index[current_subgraph_index] + tensor_idx;

  for (size_t ix = 0; ix < MAX_TFL_EVAL_COUNT; ix++) {
    // already used? OK!
    if (tflEvalTensors[ix].index == tensor_idx) {
      return &tflEvalTensors[ix].tensor;
    }
    // passed all the ones we've used, so end of the list?
    if (tflEvalTensors[ix].index == TENSOR_IX_UNUSED) {
      // init the tensor
      init_tflite_eval_tensor(tensor_idx, &tflEvalTensors[ix].tensor);
      tflEvalTensors[ix].index = tensor_idx;
      return &tflEvalTensors[ix].tensor;
    }
  }

  ei_printf("ERR: GetTensor called beyond MAX_TFL_EVAL_COUNT (%d)\n", (int)MAX_TFL_EVAL_COUNT);
  return nullptr;
}

class EonMicroContext : public MicroContext {
 public:
 
  EonMicroContext(): MicroContext(nullptr, nullptr, nullptr) { }

  void* AllocatePersistentBuffer(size_t bytes) {
    return AllocatePersistentBufferImpl(nullptr, bytes);
  }

  TfLiteStatus RequestScratchBufferInArena(size_t bytes,
                                           int* buffer_index) {
  return RequestScratchBufferInArenaImpl(nullptr, bytes, buffer_index);
  }

  void* GetScratchBuffer(int buffer_index) {
    return GetScratchBufferImpl(nullptr, buffer_index);
  }
 
  TfLiteTensor* AllocateTempTfLiteTensor(int tensor_index) {
    return GetTensorImpl(nullptr, tensor_index);
  }

  void DeallocateTempTfLiteTensor(TfLiteTensor* tensor) {
    return;
  }

  bool IsAllTempTfLiteTensorDeallocated() {
    return true;
  }

  TfLiteEvalTensor* GetEvalTensor(int tensor_index) {
    return GetEvalTensorImpl(nullptr, tensor_index);
  }

};


} // namespace

TfLiteStatus tflite_learn_951457_3_init( void*(*alloc_fnc)(size_t,size_t) ) {
#ifdef EI_CLASSIFIER_ALLOCATION_HEAP
  tensor_arena = (uint8_t*) alloc_fnc(16, kTensorArenaSize);
  if (!tensor_arena) {
    ei_printf("ERR: failed to allocate tensor arena\n");
    return kTfLiteError;
  }
#else
  memset(tensor_arena, 0, kTensorArenaSize);
#endif
  tensor_boundary = tensor_arena;
  current_location = tensor_arena + kTensorArenaSize;

  EonMicroContext micro_context_;
  
  // Set microcontext as the context ptr
  ctx.impl_ = static_cast<void*>(&micro_context_);
  // Setup tflitecontext functions
  ctx.AllocatePersistentBuffer = &AllocatePersistentBufferImpl;
  ctx.RequestScratchBufferInArena = &RequestScratchBufferInArenaImpl;
  ctx.GetScratchBuffer = &GetScratchBufferImpl;
  ctx.GetTensor = &GetTensorImpl;
  ctx.GetEvalTensor = &GetEvalTensorImpl;
  ctx.ReportError = &MicroContextReportOpError;

  ctx.tensors_size = 11;
  for (size_t i = 0; i < 11; ++i) {
    TfLiteTensor tensor;
    init_tflite_tensor(i, &tensor);
    if (tensor.allocation_type == kTfLiteArenaRw) {
      auto data_end_ptr = (uint8_t*)tensor.data.data + tensorData[i].bytes;
      if (data_end_ptr > tensor_boundary) {
        tensor_boundary = data_end_ptr;
      }
    }
  }

  if (tensor_boundary > current_location /* end of arena size */) {
    ei_printf("ERR: tensor arena is too small, does not fit model - even without scratch buffers\n");
    return kTfLiteError;
  }

  registrations[OP_FULLY_CONNECTED] = Register_FULLY_CONNECTED();
  registrations[OP_SOFTMAX] = Register_SOFTMAX();

  for (size_t g = 0; g < 1; ++g) {
    current_subgraph_index = g;
    for(size_t i = tflNodes_subgraph_index[g]; i < tflNodes_subgraph_index[g+1]; ++i) {
      if (registrations[used_ops[i]].init) {
        tflNodes[i].user_data = registrations[used_ops[i]].init(&ctx, (const char*)tflNodes[i].builtin_data, 0);
      }
    }
  }
  current_subgraph_index = 0;

  for(size_t g = 0; g < 1; ++g) {
    current_subgraph_index = g;
    for(size_t i = tflNodes_subgraph_index[g]; i < tflNodes_subgraph_index[g+1]; ++i) {
      if (registrations[used_ops[i]].prepare) {
        ResetTensors();
        TfLiteStatus status = registrations[used_ops[i]].prepare(&ctx, &tflNodes[i]);
        if (status != kTfLiteOk) {
          return status;
        }
      }
    }
  }
  current_subgraph_index = 0;

  return kTfLiteOk;
}

TfLiteStatus tflite_learn_951457_3_input(int index, TfLiteTensor *tensor) {
  init_tflite_tensor(in_tensor_indices[index], tensor);
  return kTfLiteOk;
}

TfLiteStatus tflite_learn_951457_3_output(int index, TfLiteTensor *tensor) {
  init_tflite_tensor(out_tensor_indices[index], tensor);
  return kTfLiteOk;
}

TfLiteStatus tflite_learn_951457_3_invoke() {
  for (size_t i = 0; i < 4; ++i) {
    ResetTensors();

    TfLiteStatus status = registrations[used_ops[i]].invoke(&ctx, &tflNodes[i]);

#if EI_CLASSIFIER_PRINT_STATE
    ei_printf("layer %lu\n", i);
    ei_printf("    inputs:\n");
    for (size_t ix = 0; ix < tflNodes[i].inputs->size; ix++) {
      auto d = tensorData[tflNodes[i].inputs->data[ix]];

      size_t data_ptr = (size_t)d.data;

      if (d.allocation_type == kTfLiteArenaRw) {
        data_ptr = (size_t)tensor_arena + data_ptr;
      }

      if (d.type == TfLiteType::kTfLiteInt8) {
        int8_t* data = (int8_t*)data_ptr;
        ei_printf("        %lu (%zu bytes, ptr=%p, alloc_type=%d, type=%d): ", ix, d.bytes, data, (int)d.allocation_type, (int)d.type);
        for (size_t jx = 0; jx < d.bytes; jx++) {
          ei_printf("%d ", data[jx]);
        }
      }
      else {
        float* data = (float*)data_ptr;
        ei_printf("        %lu (%zu bytes, ptr=%p, alloc_type=%d, type=%d): ", ix, d.bytes, data, (int)d.allocation_type, (int)d.type);
        for (size_t jx = 0; jx < d.bytes / 4; jx++) {
          ei_printf("%f ", data[jx]);
        }
      }
      ei_printf("\n");
    }
    ei_printf("\n");

    ei_printf("    outputs:\n");
    for (size_t ix = 0; ix < tflNodes[i].outputs->size; ix++) {
      auto d = tensorData[tflNodes[i].outputs->data[ix]];

      size_t data_ptr = (size_t)d.data;

      if (d.allocation_type == kTfLiteArenaRw) {
        data_ptr = (size_t)tensor_arena + data_ptr;
      }

      if (d.type == TfLiteType::kTfLiteInt8) {
        int8_t* data = (int8_t*)data_ptr;
        ei_printf("        %lu (%zu bytes, ptr=%p, alloc_type=%d, type=%d): ", ix, d.bytes, data, (int)d.allocation_type, (int)d.type);
        for (size_t jx = 0; jx < d.bytes; jx++) {
          ei_printf("%d ", data[jx]);
        }
      }
      else {
        float* data = (float*)data_ptr;
        ei_printf("        %lu (%zu bytes, ptr=%p, alloc_type=%d, type=%d): ", ix, d.bytes, data, (int)d.allocation_type, (int)d.type);
        for (size_t jx = 0; jx < d.bytes / 4; jx++) {
          ei_printf("%f ", data[jx]);
        }
      }
      ei_printf("\n");
    }
    ei_printf("\n");
#endif // EI_CLASSIFIER_PRINT_STATE

    if (status != kTfLiteOk) {
      return status;
    }
  }
  return kTfLiteOk;
}

TfLiteStatus tflite_learn_951457_3_reset( void (*free_fnc)(void* ptr) ) {
#ifdef EI_CLASSIFIER_ALLOCATION_HEAP
  free_fnc(tensor_arena);
#endif

  // scratch buffers are allocated within the arena, so just reset the counter so memory can be reused
  scratch_buffers_ix = 0;

  // overflow buffers are on the heap, so free them first
  for (size_t ix = 0; ix < overflow_buffers_ix; ix++) {
    ei_free(overflow_buffers[ix]);
  }
  overflow_buffers_ix = 0;
  return kTfLiteOk;
}
